<?xml version="1.0"?>
<opencv_storage>
<cascade>
  <stageType>BOOST</stageType>
  <featureType>HAAR</featureType>
  <height>24</height>
  <width>24</width>
  <stageParams>
    <boostType>GAB</boostType>
    <minHitRate>9.9500000476837158e-01</minHitRate>
    <maxFalseAlarm>5.0000000000000000e-01</maxFalseAlarm>
    <weightTrimRate>9.4999998807907104e-01</weightTrimRate>
    <maxDepth>1</maxDepth>
    <maxWeakCount>100</maxWeakCount></stageParams>
  <featureParams>
    <maxCatCount>0</maxCatCount>
    <featSize>1</featSize>
    <mode>BASIC</mode></featureParams>
  <stageNum>1</stageNum>
  <stages>
    <!-- stage 0 -->
    <_>
      <maxWeakCount>2</maxWeakCount>
      <stageThreshold>-8.8439393043518066e-01</stageThreshold>
      <weakClassifiers>
        <_>
          <internalNodes>
            0 -1 1 -1.2468735687434673e-02</internalNodes>
          <leafValues>
            6.3636362552642822e-01 -9.9799799919128418e-01</leafValues></_>
        <_>
          <internalNodes>
            0 -1 0 8.2723811268806458e-02</internalNodes>
          <leafValues>
            -9.9711334705352783e-01 1.1360406875610352e-01</leafValues></_></weakClassifiers></_></stages>
  <features>
    <_>
      <rects>
        <_>
          8 1 5 14 -1.</_>
        <_>
          8 8 5 7 2.</_></rects>
      <tilted>0</tilted></_>
    <_>
      <rects>
        <_>
          9 17 4 4 -1.</_>
        <_>
          9 17 2 2 2.</_>
        <_>
          11 19 2 2 2.</_></rects>
      <tilted>0</tilted></_></features></cascade>
</opencv_storage>
